{
    "layerSizes": [
        9,
        4,
        4,
        4
    ],
    "layers": [
        {
            "activationType": 0,
            "biases": [
                0.0,
                0.0,
                0.0,
                0.0
            ],
            "isInputLayer": true,
            "weights": [
                [
                    0.0,
                    0.0,
                    0.0,
                    0.0
                ],
                [
                    0.0,
                    0.0,
                    0.0,
                    0.0
                ],
                [
                    0.0,
                    0.0,
                    0.0,
                    0.0
                ],
                [
                    0.0,
                    0.0,
                    0.0,
                    0.0
                ],
                [
                    0.0,
                    0.0,
                    0.0,
                    0.0
                ],
                [
                    0.0,
                    0.0,
                    0.0,
                    0.0
                ],
                [
                    0.0,
                    0.0,
                    0.0,
                    0.0
                ],
                [
                    0.0,
                    0.0,
                    0.0,
                    0.0
                ],
                [
                    0.0,
                    0.0,
                    0.0,
                    0.0
                ]
            ]
        },
        {
            "activationType": 1,
            "biases": [
                1.0734408730740825,
                2.854446498383145,
                1.1515000390579744,
                -1.8166468885782576
            ],
            "isInputLayer": false,
            "weights": [
                [
                    -1.5324216420760313,
                    1.146021552031702,
                    0.7663345458271861,
                    1.125312098750224
                ],
                [
                    0.9990573087591419,
                    -1.2790412374448512,
                    0.7550051812312785,
                    2.874127054639275
                ],
                [
                    -0.5199955738461761,
                    1.1902271751044529,
                    -0.3575669605799664,
                    0.05832213205040848
                ],
                [
                    0.883337828868882,
                    -1.1255678614007336,
                    -1.4250185798762618,
                    1.8158169956788237
                ],
                [
                    -3.8659580714321224,
                    1.7683854558081973,
                    -1.6712378145558857,
                    -1.1005724227657758
                ],
                [
                    1.6580778196333235,
                    -2.3958376199969944,
                    -1.3556108112624141,
                    1.425064187821477
                ],
                [
                    0.8769051602960575,
                    -1.9497659506396832,
                    0.7100929623148466,
                    -1.4878069691948546
                ],
                [
                    -1.4686551769350897,
                    -1.1220230967974918,
                    -0.3184312951663521,
                    1.1250442568353085
                ],
                [
                    0.7392720022721517,
                    -0.3745550371581583,
                    -1.2591693385792202,
                    -0.3295421571705539
                ]
            ]
        },
        {
            "activationType": 1,
            "biases": [
                -0.8746686146720167,
                1.1383365042203493,
                -0.27422582184490063,
                -0.2785428314088373
            ],
            "isInputLayer": false,
            "weights": [
                [
                    3.247298578043285,
                    -1.9312950149081076,
                    2.848080097336276,
                    1.5524771715711032
                ],
                [
                    -2.0742763596794855,
                    4.720019567307916,
                    -2.2620079814288,
                    4.703460322989183
                ],
                [
                    2.3130592801305694,
                    1.2564036848658746,
                    0.24614737254232388,
                    2.6435258067616
                ],
                [
                    -0.057622965665477976,
                    -1.8589287962258219,
                    5.125189204080264,
                    -4.0578771514395955
                ]
            ]
        },
        {
            "activationType": 1,
            "biases": [
                -0.07716322186951396,
                -6.636424167125978,
                0.1070020051901488,
                -1.6169359255512616
            ],
            "isInputLayer": false,
            "weights": [
                [
                    3.033258727618493,
                    1.0233395601554012,
                    -2.7358454951297904,
                    -3.044530012823057
                ],
                [
                    -4.231199401669488,
                    2.0352711430470176,
                    1.9583627386305298,
                    2.6992408864718502
                ],
                [
                    0.4914620909222178,
                    3.43467055054956,
                    0.798197440245076,
                    -5.345269777812012
                ],
                [
                    -2.765423292303749,
                    2.8825628111540444,
                    -4.858427262470695,
                    2.336895030343566
                ]
            ]
        }
    ]
}